tree
version=v4
num_class=1
num_tree_per_iteration=1
label_index=0
max_feature_idx=24
objective=lambdarank
feature_names=Column_0 Column_1 Column_2 Column_3 Column_4 Column_5 Column_6 Column_7 Column_8 Column_9 Column_10 Column_11 Column_12 Column_13 Column_14 Column_15 Column_16 Column_17 Column_18 Column_19 Column_20 Column_21 Column_22 Column_23 Column_24
feature_infos=[0:1] [0:1] [0:14] [0:14] [1:10] [0:25] [0:0.80000000000000004] [0:0.90000000000000002] [0:1] [0:0.80000000000000004] [0:0.80000000000000004] none [0:1] [0:1] [0:1] [0:1] none [0:1] [0:1] [0:1] [0:1] [0:1] [0:1] [0:1] [0:1]
tree_sizes=1797 2184 1982 1999 1794 1968 2159 2180 2067 2177 2070 1685 2094 1982 1864 1912 1791 2043

Tree=0
num_leaves=16
num_cat=0
split_feature=9 8 10 9 10 7 10 21 23 13 7 2 7 10 5
split_gain=9.20003 1.49884 1.26993 1.51103 1.40446 1.12901 1.05243 0.875668 0.845329 0.60109 3.02476 0.557513 0.530159 0.0950711 0.00933512
threshold=0.38750000000000007 0.63605000000000012 0.088227000000000014 0.28985000000000005 0.16295500000000004 0.44575000000000004 0.10891125 1.0000000180025095e-35 1.0000000180025095e-35 1.0000000180025095e-35 0.76250000000000007 6.5000000000000009 0.69525000000000003 0.24111038000000001 14.500000000000002
decision_type=2 2 2 2 2 2 2 2 2 2 2 2 2 2 2
left_child=2 5 -1 4 6 -2 -4 13 -8 12 -11 -9 -3 -7 -5
right_child=1 9 3 14 -6 7 8 11 -10 10 -12 -13 -14 -15 -16
leaf_value=-0.089201306896985938 0.06207890402108307 0.072861000251517913 0.0074735884784820506 -0.084565292530816683 0.050614060141587175 -0.01026995131544845 0 -0.022272421609286094 -0.083550502513242683 -0.051338366416608272 0.08289620075039339 0.039166108905577882 0.016348191180871694 -0.070362763879318044 -0.025013189186941232
leaf_weight=1.2890569772571332 0.56377563998102997 3.1973193790763617 0.99470284581184465 0.87183571700006701 0.66256164014339436 0.39312493428587925 0.4531964659690858 0.46927187591791153 0.81188195943832364 0.67391202319413401 0.7769981324672699 0.73971372097730637 0.83351076394319523 0.40612006932497025 0.40221929550170898
leaf_count=17 3 22 8 11 5 5 4 4 12 8 4 8 8 5 3
internal_value=0.00375045 0.0379231 -0.0453073 -0.0288977 -0.00642233 0.00401921 -0.0267003 -0.0120799 -0.0558123 0.0525778 0.0180336 0.0116191 0.0630641 -0.0507941 -0.0725922
internal_weight=13.5392 8.05375 5.48545 4.1964 2.92234 2.57201 2.25978 2.00823 1.26508 5.48174 1.45091 1.20899 4.03083 0.799245 1.27406
internal_count=127 67 60 43 29 25 24 22 16 42 12 12 30 10 14
is_linear=0
shrinkage=0.05


Tree=1
num_leaves=20
num_cat=0
split_feature=1 5 6 6 10 10 6 6 6 6 9 0 7 1 0 2 2 4 7
split_gain=37.3326 10.7308 10.552 10.0658 8.61495 7.43509 7.16609 11.2767 17.2849 7.27553 4.03032 3.36752 3.24976 8.43694 3.78364 3.07398 1.64497 6.1292 3.04939
threshold=0.58810000000000007 7.5000000000000009 0.47080000000000005 0.14645000000000005 0.088227000000000014 0.34986237000000003 0.23550000000000004 0.14645000000000005 0.11765000000000002 0.4527000000000001 0.43650000000000005 0.42030000000000006 0.53205000000000002 0.23515000000000003 0.31370000000000003 6.5000000000000009 5.5000000000000009 2.5000000000000004 0.61782500000000018
decision_type=2 2 2 2 2 2 2 2 2 2 2 2 2 2 2 2 2 2 2
left_child=4 2 3 -2 -1 6 7 8 10 12 15 -5 13 -8 -15 -6 -3 -18 -19
right_child=1 16 -4 11 5 -7 9 -9 -10 -11 -12 -13 -14 14 -16 -17 17 18 -20
leaf_value=-0.091757105126526906 -0.0420079847625573 0.091237945554508856 -0.067835092844288486 0.020765788183264328 -0.049160409000832815 -0.095517552329919639 0.078170142925573838 -0.094664143616956811 0.093840165638424178 -0.047208560873145906 -0.093202175647071006 0.092055799937894978 0.090951783475189826 0.028802890706614456 -0.086157884473049173 0.011886690150118659 0.092759750521658968 0.05622024756019689 -0.013769564542784383
leaf_weight=4.8094677468761793 2.9377684593200701 6.4701354950666454 3.1856611669063559 3.0054466426372528 4.1164482496678882 2.8887233436107627 2.9983917940407974 5.0107428431510916 3.1282447576522818 2.8840979486703864 2.485614150762558 4.5651782751083374 2.4658219814300537 1.0466186106204989 1.6803149767220018 3.776282399892807 5.6722293049097043 2.7805176079273224 3.1404828876256943
leaf_count=17 5 9 6 5 8 7 6 9 3 6 6 5 3 4 8 4 6 4 6
internal_value=0.00413561 0.0439662 0.0100369 0.0345324 -0.0296779 -0.020079 -0.0122497 -0.0313179 -0.00692694 0.0191791 -0.0383831 0.065046 0.0434446 0.0209155 -0.0408083 -0.0195435 0.0692162 0.0558232 0.0186553
internal_weight=69.0482 31.7574 13.6941 10.5084 37.2908 32.4813 29.5926 18.5173 13.5066 11.0752 10.3783 7.57062 8.19115 5.72533 2.72693 7.89273 18.0634 11.5932 5.921
internal_count=127 46 21 15 81 64 57 30 21 27 18 10 21 18 12 12 25 16 10
is_linear=0
shrinkage=0.05


Tree=2
num_leaves=18
num_cat=0
split_feature=1 2 6 6 6 22 2 1 13 0 1 4 6 1 1 6 6
split_gain=18.0906 8.14353 4.57495 4.81209 4.36605 4.4583 7.67054 4.07932 7.72283 3.95833 3.54532 1.89518 1.85339 4.3159 4.16843 0.866639 0.327884
threshold=0.40590000000000009 2.5000000000000004 0.29750000000000004 0.4527000000000001 0.11765000000000002 1.0000000180025095e-35 5.5000000000000009 0.73215000000000019 1.0000000180025095e-35 0.5797000000000001 0.61250000000000016 8.5000000000000018 0.16660000000000005 0.43650000000000005 0.58810000000000007 0.29750000000000004 0.16660000000000005
decision_type=2 2 2 2 2 2 2 2 2 2 2 2 2 2 2 2 2
left_child=2 7 11 9 5 6 -3 8 -2 -4 12 -1 -6 -14 -15 16 -12
right_child=1 4 3 -5 10 -7 -8 -9 -10 -11 15 -13 13 14 -16 -17 -18
leaf_value=-0.087135821615196243 0.020287436599433471 0.080238083359242332 -0.02612954129728148 -0.057571435477738499 0.063120801069310353 -0.041817451043424048 -0.014010228432217107 0.026255410846540917 -0.089897441318311053 0.065535444656011757 0.057349077763687945 -0.019988557117693161 0.078505101045819453 -0.082604801987591112 0.034351098332280637 0.041090109437843546 0.089531655483536532
leaf_weight=4.8701733127236349 2.8138331621885282 4.0249164402484912 2.1784829348325729 3.4396606534719467 1.612810999155047 2.6354292482137671 4.3239491619169712 3.7331632375717163 3.3074154406785965 2.2571510672569275 3.3586757183074933 1.6900954395532606 1.1562188267707822 1.6489860657602549 1.2003293931484222 3.1341227591037741 5.4360520839691162
leaf_count=20 9 5 5 8 3 6 8 6 10 6 6 5 2 11 2 8 7
internal_value=0.00697564 0.0249926 -0.0404321 -0.0136474 0.0385389 0.013046 0.0312462 -0.0137188 -0.0389317 0.0198299 0.0540494 -0.0711475 0.0195733 0 -0.0321454 0.0695739 0.0785863
internal_weight=52.8215 38.3859 14.4356 7.87529 28.5315 10.9843 8.34887 9.85441 6.12125 4.43563 17.5472 6.56027 5.61835 4.00553 2.84932 11.9289 8.79473
internal_count=127 83 44 19 58 19 13 25 19 11 39 25 18 15 13 21 13
is_linear=0
shrinkage=0.05


Tree=3
num_leaves=18
num_cat=0
split_feature=10 3 21 2 7 0 7 8 0 8 13 7 10 8 6 6 0
split_gain=13.2406 4.08331 3.50232 6.6527 3.91215 3.76204 6.27524 4.76651 3.35497 3.34417 2.63008 5.26597 5.68078 1.38528 1.78536 1.23649 0.272972
threshold=0.16295500000000004 2.5000000000000004 1.0000000180025095e-35 3.5000000000000004 0.71677500000000016 0.41190000000000004 0.64492500000000008 0.70595000000000008 0.73215000000000019 0.63605000000000012 1.0000000180025095e-35 0.38217500000000004 0.088227000000000014 0.5797000000000001 0.11765000000000002 0.15675000000000003 0.48550000000000004
decision_type=2 2 2 2 2 2 2 2 2 2 2 2 2 2 2 2 2
left_child=10 8 3 4 -3 -4 7 13 -2 -5 11 12 -1 -7 -15 -11 -14
right_child=1 2 5 9 -6 6 -8 -9 -10 15 -12 -13 16 14 -16 -17 -18
leaf_value=-0.076601535762927456 -0.078994520186166636 0.00024691581293868333 0.081855197600616339 -0.022061088911659522 -0.092414957906821471 0.050628958799432633 0.07011358283939588 -0.068537398613085693 0.0074704952235549226 0.017882907974659287 -0.077143721954659225 -0.08399466667481148 0.014901966116877899 -0.03238437638768836 0.031600999005845835 0.071323675742527654 0.047576785223923196
leaf_weight=1.5353789478540401 1.7181899696588505 2.1256817430257815 3.9448742568492916 1.9319831281900404 2.1149673461914062 2.2173430025577527 4.7924665510654441 1.9093116670846937 2.6577220559120178 2.1412622332572937 3.9512262195348731 2.5189033821225166 1.9402193725109103 1.9100514873862264 2.2635722607374191 3.3088277876377106 2.0399266481399536
leaf_count=9 9 6 7 6 4 3 9 8 5 4 15 12 6 5 6 9 4
internal_value=0.00119637 0.0176405 0.0246022 0.00292049 -0.0458794 0.0389979 0.0251833 -0.000689424 -0.026369 0.0318605 -0.0434862 -0.0255743 0.00123614 0.0195536 0.00107566 0.051929 0.0336297
internal_weight=45.0219 33.0363 28.6603 11.6227 4.24065 17.0376 13.0927 8.30028 4.37591 7.38207 11.9857 8.03443 5.51552 6.39097 4.17362 5.45009 3.98015
internal_count=127 81 67 29 10 38 31 22 14 19 46 31 19 14 11 13 10
is_linear=0
shrinkage=0.05


Tree=4
num_leaves=16
num_cat=0
split_feature=1 6 1 10 6 18 23 6 6 1 4 4 0 4 4
split_gain=11.5704 5.84066 5.192 4.61688 3.42576 2.47097 2.04873 1.9777 4.42022 1.50756 3.07542 1.30254 1.15463 1.01542 0.498073
threshold=0.40590000000000009 0.41190000000000004 0.61250000000000016 0.34986237000000003 0.15675000000000003 1.0000000180025095e-35 1.0000000180025095e-35 0.29750000000000004 0.58570000000000022 0.43650000000000005 3.5000000000000004 8.5000000000000018 0.40590000000000009 6.5000000000000009 4.5000000000000009
decision_type=2 2 2 2 2 2 2 2 2 2 2 2 2 2 2
left_child=7 2 3 9 5 -4 -3 11 14 -2 -11 -1 -12 -14 -9
right_child=1 6 4 -5 -6 -7 -8 8 -10 10 12 -13 13 -15 -16
leaf_value=-0.079401487704764587 0.042981718910590598 -0.00039867336586195211 -0.013503376381649569 -0.079350537068107824 0.072194074300239178 0.053419286252977288 -0.081952650972934804 -0.010747124939849566 -0.087141527735826993 0.041698125034967594 0.00095571554265425421 -0.01975300363053506 -0.079518584947755322 -0.0079017027965620212 0.021307618317541337
leaf_weight=3.6488499119877797 3.3580157086253219 1.689820408821106 2.7532502561807615 1.3444055765867222 7.4265817515552044 2.4503793567419052 1.54180584847927 1.9577142745256422 1.6197205036878584 2.9443042427301407 2.1920906156301498 1.6518055349588392 1.1296330466866495 1.1620213389396665 2.5115019083023071
leaf_count=20 8 6 7 8 16 5 6 7 4 9 8 5 6 4 8
internal_value=0.00221934 0.0196218 0.0280155 0.00412075 0.0503594 0.0174807 -0.0421007 -0.0399141 -0.0187962 0.0156175 0.00217607 -0.0624494 -0.0230293 -0.0471434 0.00624404
internal_weight=39.3819 27.9923 24.7607 12.1305 12.6302 5.20363 3.23163 11.3896 6.08894 10.7861 7.42805 5.30066 4.48375 2.29165 4.46922
internal_count=127 83 71 43 28 12 12 44 19 35 27 25 18 10 15
is_linear=0
shrinkage=0.05


Tree=5
num_leaves=18
num_cat=0
split_feature=10 7 10 8 9 10 0 0 9 8 13 21 0 7 0 10 9
split_gain=11.1545 7.33032 5.80012 7.36535 4.5359 3.89377 3.80954 6.32563 3.46025 3.11809 8.14793 2.85579 1.58106 1.37473 1.21809 0.353327 0.179048
threshold=0.17136681000000001 0.38217500000000004 0.197016 0.58810000000000007 0.38750000000000007 0.082274530000000012 0.41190000000000004 0.51450000000000007 0.41190000000000004 0.80600000000000016 1.0000000180025095e-35 1.0000000180025095e-35 0.70595000000000008 0.64217500000000005 0.26785000000000009 0.37435173000000005 0.52920000000000011
decision_type=2 2 2 2 2 2 2 2 2 2 2 2 2 2 2 2 2
left_child=1 5 8 -4 -5 -1 -6 15 -2 10 12 14 13 16 -7 -8 -9
right_child=2 -3 3 4 6 11 7 9 -10 -11 -12 -13 -14 -15 -16 -17 -18
leaf_value=-0.071975364484894291 0.015705686894550416 -0.087263163191488566 -0.081978474146734828 -0.053545504268165858 0.071790811286174774 0.019968373809976792 -0.060062183959400162 0.039019497433515224 0.089815026108340246 0.073857225291321257 -0.081035077049242274 0.046792128413780151 0 0.081917079762265144 -0.043547523161564794 -0.019004720605205042 0.0084612992520411746
leaf_weight=1.746794305741785 3.17896141111851 4.9016392296180129 2.1507654786109951 2.14418996870518 3.0473042130470303 0.96585491299629245 2.173874974250793 1.458806559443472 3.5743793845176697 2.8167155236005774 1.7216420322656629 2.8157954812049866 2.2757489904761314 2.1936549842357635 2.0469096004962921 1.4168239086866377 1.5628682971000671
leaf_count=12 8 22 11 6 6 5 6 4 4 7 8 7 8 5 6 5 6
internal_value=-0.000563029 -0.040165 0.0159762 0.00367831 0.0131193 -0.00829885 0.0212875 0.0107228 0.0563977 0.0283578 0.0132661 0.0108335 0.0363797 0.0513201 -0.0215915 -0.0461703 0.0255933
internal_weight=42.1927 12.477 29.7157 22.9624 20.8116 7.57535 18.6674 15.6201 6.75334 12.0294 9.21272 5.82856 7.49108 5.21533 3.01276 3.5907 3.02167
internal_count=136 52 84 72 61 30 55 49 12 38 31 18 23 15 11 11 10
is_linear=0
shrinkage=0.05


Tree=6
num_leaves=20
num_cat=0
split_feature=3 6 0 2 1 5 6 23 0 6 1 6 6 3 23 1 1 0 0
split_gain=5.45657 4.18282 3.79956 3.49624 3.32558 3.86356 2.66094 2.43702 2.22976 2.1529 1.87587 3.96392 2.08481 1.77027 1.30365 1.10954 1.09564 1.02449 0.988863
threshold=12.500000000000002 0.058949999999999982 0.24265000000000003 4.5000000000000009 0.41190000000000004 17.500000000000004 0.29750000000000004 1.0000000180025095e-35 0.28985000000000005 0.41190000000000004 0.61250000000000016 0.074150000000000008 0.23550000000000004 3.5000000000000004 1.0000000180025095e-35 0.70595000000000008 0.58810000000000007 0.61250000000000016 0.42030000000000006
decision_type=2 2 2 2 2 2 2 2 2 2 2 2 2 2 2 2 2 2 2
left_child=1 3 13 15 6 9 8 -8 -4 10 11 -6 16 -3 -7 18 17 -13 -1
right_child=-2 2 4 -5 5 14 7 -9 -10 -11 -12 12 -14 -15 -16 -17 -18 -19 -20
leaf_value=-0.066343906784212023 0.079616942230681609 0 0.013139252559164745 -0.08568439985692014 0.080214334625336947 -0.047825738032107837 -0.032128647752021559 0.039776530381236283 -0.075954088366421993 -0.0091702273277768677 0.064354423595378296 -0.070328700794536486 0.049892366715302797 -0.079634341083266433 0.0062681526737813397 0.029047276768405645 0.010135090729536327 0 0
leaf_weight=0.87682973593473423 1.9488718807697285 0.95863929390907587 0.81845739483833613 2.5428407713770866 2.0136936604976672 2.1083636805415154 2.0391082987189293 2.4651119485497475 2.3880984708666801 2.3158367425203314 5.2439598143100739 1.2745096608996398 1.3293824195861814 1.7810089066624639 1.9232139587402333 1.1782818734645841 1.4294710159301756 0.95777065306901921 1.2097436636686323
leaf_count=5 4 5 2 12 3 6 6 9 14 8 14 8 4 11 8 3 4 4 6
internal_value=0.000184078 -0.00432942 0.00330053 -0.0427461 0.00935981 0.0209012 -0.0177458 0.00614753 -0.0519917 0.0329847 0.0413694 0.022795 -0.000509551 -0.0514026 -0.0212836 -0.006265 -0.0209768 -0.0426239 -0.0289089
internal_weight=36.8032 34.8543 29.0466 5.8077 26.307 18.5962 7.71078 4.50422 3.20656 14.5646 12.2488 7.00483 4.99113 2.73965 4.03158 3.26486 3.66175 2.23228 2.08657
internal_count=136 132 106 26 90 59 31 15 16 45 37 23 20 16 14 14 16 12 11
is_linear=0
shrinkage=0.05


Tree=7
num_leaves=20
num_cat=0
split_feature=10 7 6 3 17 2 6 2 0 7 6 8 21 2 4 6 2 8 2
split_gain=5.1048 3.96704 3.38747 3.05913 4.3069 3.37972 2.4567 4.35533 2.05172 1.45513 1.28626 2.60584 1.07384 0.868209 1.3682 0.642488 0.323996 0.15022 0.109744
threshold=0.17136681000000001 0.38217500000000004 0.12135000000000003 12.500000000000002 1.0000000180025095e-35 8.5000000000000018 0.058949999999999982 4.5000000000000009 0.44960000000000006 0.64492500000000008 0.074150000000000008 0.61250000000000016 1.0000000180025095e-35 2.5000000000000004 5.5000000000000009 0.41190000000000004 5.5000000000000009 0.73215000000000019 6.5000000000000009
decision_type=2 2 2 2 2 2 2 2 2 2 2 2 2 2 2 2 2 2 2
left_child=1 2 -1 4 5 6 7 -2 -6 -10 -8 18 -7 14 -4 16 17 -13 -12
right_child=3 -3 13 -5 8 12 10 -9 9 -11 11 15 -14 -15 -16 -17 -18 -19 -20
leaf_value=-0.07061259314363981 0.031596807499728694 -0.076400603252455179 -0.011273103540960833 0.073899519117883825 0.013939973957179316 0 0.076433457325940646 -0.084468027765852924 -0.018098106881824162 -0.086178055036469289 -0.028257625935747023 0.037985694008754033 -0.07689189853176065 -0.01242885819284216 0.056145689668452271 0.010140993468934101 0.021419381728434515 0.068741705250431259 -0.00010510609525397979
leaf_weight=1.4720986634492854 1.9850134253501992 3.2067287266254425 1.0100594013929369 1.720772087574004 1.4024145007133473 0.96105282008647808 1.7656757235527027 1.1986269205808637 1.8791724964976313 1.7530172914266584 1.1957753300666802 2.4405018389224988 0.96270220354199409 1.6264532953500745 1.8340482562780378 1.8131278008222578 1.6342362612485883 2.5199147611856461 0.99463026225566853
leaf_count=10 8 22 6 4 3 7 3 3 8 5 6 8 7 8 6 6 4 8 4
internal_value=-0.00057274 -0.0323296 -0.00685015 0.0112986 0.00598526 0.0179194 0.0258958 -0.01182 -0.0339978 -0.0537241 0.0360255 0.0281746 -0.0421677 0.0141376 0.0309346 0.0409211 0.048359 0.0556476 -0.0182197
internal_weight=33.376 9.14939 5.94266 24.2266 22.5059 17.4713 15.5475 3.18364 5.0346 3.63219 12.3639 10.5982 1.92376 4.47056 2.84411 8.40778 6.59465 4.96042 2.19041
internal_count=136 52 30 84 80 64 50 11 16 13 39 36 14 20 12 26 20 16 10
is_linear=0
shrinkage=0.05


Tree=8
num_leaves=19
num_cat=0
split_feature=6 1 6 6 6 6 6 18 8 2 2 5 6 1 5 5 6 9
split_gain=5.30952 4.28475 3.91295 2.64911 2.34526 4.43643 1.92879 1.57349 1.50769 3.06027 1.43553 1.27625 1.23534 1.35563 1.16453 0.997678 0.597615 0.135219
threshold=0.6573500000000001 0.61250000000000016 0.058949999999999982 0.41190000000000004 0.074150000000000008 0.11765000000000002 0.53570000000000018 1.0000000180025095e-35 0.5797000000000001 2.5000000000000004 3.5000000000000004 3.5000000000000004 0.1903 0.70595000000000008 7.5000000000000009 16.500000000000004 0.47080000000000005 0.42030000000000006
decision_type=2 2 2 2 2 2 2 2 2 2 2 2 2 2 2 2 2 2
left_child=1 2 10 12 -4 -6 -5 8 9 -7 -1 -9 13 -3 -10 16 -13 -14
right_child=-2 3 4 6 5 7 -8 11 14 -11 -12 15 17 -15 -16 -17 -18 -19
leaf_value=-0.011377492030529181 -0.087703579173561003 -0.0094258448128796274 0.04800978691265996 -0.06091715795564219 -0.079796885595049549 0.041395378197259934 0.023329318465296438 0.020983194331999674 0.074110874247031375 -0.068148940944118497 -0.082693288685003877 -0.068798609206561584 0.034643679591757369 0.043930644772039368 0.011764815499770251 0 -0.0055584132310596288 0.06780623324338729
leaf_weight=1.3063572943210702 1.653985708951949 2.0999001786112768 1.9608256891369809 1.2388884834945195 1.8094155117869366 1.2392703592777237 1.1929832845926283 1.3889174237847326 1.4862577468156817 1.0913234576582906 2.2825297340750694 1.5908590126782662 1.6896300017833707 2.261624775826931 1.9489039629697797 1.4644127562642095 0.73795959353446949 2.8068118095397949
leaf_count=8 4 7 6 7 10 6 5 5 4 7 12 15 5 8 8 8 2 9
internal_value=-0.00312055 0.00171731 -0.013023 0.025963 -0.00112669 -0.00938261 -0.0183251 0.00241948 0.0206139 -0.00853612 -0.0591018 -0.0168844 0.0387489 0.0174855 0.0414872 -0.032217 -0.0518715 0.0574573
internal_weight=31.2509 29.5969 18.307 11.2898 14.7181 12.7573 2.43187 10.9479 5.76576 2.33059 3.58889 5.18215 8.85797 4.36152 3.43516 3.79323 2.32882 4.49644
internal_count=136 132 91 41 71 65 12 55 25 13 20 30 29 15 12 25 17 14
is_linear=0
shrinkage=0.05


Tree=9
num_leaves=20
num_cat=0
split_feature=7 6 6 4 9 2 6 6 10 18 10 1 10 10 2 6 6 6 18
split_gain=3.98505 4.2342 3.31768 1.85562 1.71625 2.53582 2.27299 4.61373 1.57072 2.4112 1.40133 2.56696 1.05193 2.22538 0.840552 0.94326 1.56499 0.419407 0.0380562
threshold=0.66785000000000017 0.058949999999999982 0.58570000000000022 8.5000000000000018 0.15480000000000002 2.5000000000000004 0.074150000000000008 0.11765000000000002 0.48306250000000006 1.0000000180025095e-35 0.18526161000000002 0.18800000000000003 0.102780735 0.22528635000000002 9.5000000000000018 0.23550000000000004 0.17135 0.33570000000000005 1.0000000180025095e-35
decision_type=2 2 2 2 2 2 2 2 2 2 2 2 2 2 2 2 2 2 2
left_child=1 3 4 -1 -3 12 -7 -8 -2 -10 11 -9 -6 18 15 16 -12 -17 -14
right_child=8 2 -4 -5 5 6 7 10 9 -11 14 -13 13 -15 -16 17 -18 -19 -20
leaf_value=-0.079671676267537184 0.072946954101436104 -0.060784288041054707 -0.077026466935944435 0 0.067509412060956717 0.046519733525681832 -0.082270084821086761 0.034517130924276725 -0.015503570204973831 0.06729705709783837 0.039575814623319022 -0.068925650913097505 -0.031534069855141005 0.066306195414605057 -0.023442147051534988 0.053946502759752601 -0.035329384228407777 0.015600973195267494 -0.0047629076158697096
leaf_weight=2.7154064923524923 1.8862511664628971 0.86164876073599472 1.2558103203773487 0.99961612373590458 1.9081951305270219 1.8477592915296543 1.8370272293686856 0.80285091698169564 2.2243487685918808 1.26749823987484 1.1057708859443667 1.5185646861791608 0.67656142450869106 1.1661759614944456 1.1764819771051405 1.7649956345558169 1.5283131673932073 2.1627973467111588 0.89988099038600922
leaf_count=18 5 7 6 4 5 6 8 2 8 5 5 13 7 4 9 5 7 8 4
internal_value=-0.00166196 -0.0104923 -0.00124078 -0.0588929 0.00381553 0.00742404 -0.0031035 -0.0115511 0.0366704 0.0141968 0.00155354 -0.0311375 0.038999 0.0157266 0.0122705 0.0196797 -0.00175852 0.0349849 -0.0204305
internal_weight=29.606 24.2279 20.5128 3.71502 19.257 18.3954 13.7446 11.8968 5.3781 3.49185 10.0598 2.32142 4.65081 2.74262 7.73836 6.56188 2.63408 3.92779 1.57644
internal_count=136 118 96 22 90 83 63 57 18 13 49 15 20 15 34 25 12 13 11
is_linear=0
shrinkage=0.05


Tree=10
num_leaves=19
num_cat=0
split_feature=8 18 1 9 9 9 14 1 6 3 5 1 6 6 18 1 5 8
split_gain=3.72035 3.56194 1.88825 1.63139 3.67203 2.47593 1.5077 1.23258 1.03673 1.37421 0.901313 0.834388 0.833814 0.512802 1.53494 0.190465 0.158848 0.124788
threshold=0.52920000000000011 1.0000000180025095e-35 0.35295000000000004 0.51450000000000007 0.43650000000000005 0.38750000000000007 1.0000000180025095e-35 0.58810000000000007 0.53570000000000018 3.5000000000000004 6.5000000000000009 0.26785000000000009 0.058949999999999982 0.15675000000000003 1.0000000180025095e-35 0.52920000000000011 8.5000000000000018 0.48550000000000004
decision_type=2 2 2 2 2 2 2 2 2 2 2 2 2 2 2 2 2 2
left_child=1 2 -1 4 5 6 8 -5 9 11 -7 -2 -4 14 -9 -12 -6 -14
right_child=3 -3 12 7 16 10 -8 13 -10 -11 15 -13 17 -15 -16 -17 -18 -19
leaf_value=-0.06098746949537906 0.05857444677418322 -0.078901311987904718 -0.014185035380605657 -0.021261961932369986 -0.060549832001958605 0 -0.061707564509707928 -0.0052203432911481886 -0.030055925190108496 -0.027457534425023734 0.069901638278608166 0 0.043918770428809928 0.064102787335475184 0.050571797501421628 0.035926452299554483 -0.02495452622479314 0.010403683441479475
leaf_weight=0.94199118390679615 1.7801708504557652 2.0907786935567856 1.2928718850016596 0.71539216116070647 1.2151975855231278 1.0711076036095617 0.85146302729844858 1.7727627679705618 1.187808461487293 0.86205790936946858 1.8612117916345594 0.78012853115797032 1.3723216727375986 2.095991775393486 2.99115189909935 2.3938970863819122 1.7654904872179029 1.0277659520506857
leaf_count=8 6 11 8 8 6 5 8 8 8 6 4 5 5 8 11 8 7 6
internal_value=0.00556398 -0.0263366 -0.000403566 0.0159254 0.00515701 0.019077 -0.00378965 0.0345239 0.00692881 0.0216736 0.0430842 0.0405059 0.0149323 0.0412819 0.0291018 0.0531993 -0.0425838 0.032557
internal_weight=28.0696 6.72573 4.63495 21.3438 13.7685 10.7878 5.46163 7.5753 4.61017 3.42236 5.32622 2.5603 3.69296 6.85991 4.76391 4.25511 2.98069 2.40009
internal_count=136 38 27 98 63 50 33 35 25 17 17 11 19 27 19 12 13 11
is_linear=0
shrinkage=0.05


Tree=11
num_leaves=15
num_cat=0
split_feature=10 4 6 8 8 6 6 13 8 8 9 4 10 3
split_gain=2.71091 1.83966 1.63143 1.64399 1.55359 2.2389 1.85322 1.63074 3.05989 1.47294 1.08369 0.545033 0.421697 0.167168
threshold=0.17136681000000001 8.5000000000000018 0.29750000000000004 0.59410000000000007 0.65690000000000015 0.17645 0.058949999999999982 1.0000000180025095e-35 0.82865000000000011 0.7714000000000002 0.43650000000000005 7.5000000000000009 0.47248690500000007 4.5000000000000009
decision_type=2 2 2 2 2 2 2 2 2 2 2 2 2 2
left_child=1 2 -1 -4 5 6 11 9 -9 -6 -8 -2 -11 -5
right_child=4 -3 3 13 7 -7 10 8 -10 12 -12 -13 -14 -15
leaf_value=-0.06501134054698221 -0.039816408201217734 0.042260784434679247 0.026299254685372444 -0.061537401683112274 0.055231045103942382 -0.050586274368550024 0.04964640069872793 -0.057657379237435913 0.038280824809622971 0.022853380655369508 0.0018999559591833524 0.0041208497227655343 -0.01908399304458612 -0.012478476981018279
leaf_weight=2.3631804510951069 1.6036981046199819 0.76885384321212757 1.5149552747607233 0.81609766185283639 4.9995301254093629 1.7193449735641477 2.7076750919222832 1.3380617648363113 1.8595890998840332 1.2704632580280306 2.4725037887692451 0.85669822245836247 0.89465191960334767 0.67538172006607056
leaf_count=26 9 3 6 8 21 10 9 9 8 5 9 4 5 4
internal_value=0.00490927 -0.0235625 -0.034502 -0.00758997 0.0140974 -0.000174209 0.0110309 0.0273449 -0.00087947 0.0404686 0.0282715 -0.0230014 0.00323948 -0.0446439
internal_weight=25.8607 6.13847 5.36962 3.00643 19.7222 9.35992 7.64058 10.3623 3.19765 7.16465 5.18018 2.4604 2.16512 1.49148
internal_count=136 47 44 18 89 41 31 48 17 31 18 13 10 12
is_linear=0
shrinkage=0.05


Tree=12
num_leaves=19
num_cat=0
split_feature=7 8 9 9 7 1 3 7 1 9 9 0 1 4 0 1 0 2
split_gain=2.29692 1.0833 0.890542 2.24813 2.02498 1.11819 1.03981 1.01931 1.08154 0.778116 0.758425 0.716144 0.526152 0.433459 0.421278 0.357884 0.342612 0.257444
threshold=0.66785000000000017 0.42030000000000006 0.43650000000000005 0.40590000000000009 0.56075000000000008 0.73215000000000019 3.5000000000000004 0.59412500000000013 0.70595000000000008 0.52920000000000011 0.26785000000000009 0.5797000000000001 0.70595000000000008 5.5000000000000009 0.73215000000000019 0.43650000000000005 0.63605000000000012 2.5000000000000004
decision_type=2 2 2 2 2 2 2 2 2 2 2 2 2 2 2 2 2 2
left_child=1 13 3 5 9 6 10 -6 -9 -4 11 -3 -8 -1 16 -5 -2 -12
right_child=14 2 4 15 7 -7 12 8 -10 -11 17 -13 -14 -15 -16 -17 -18 -19
leaf_value=-0.057452100384543396 0.018993395566882197 -0.011168515974746713 -0.072338657105354587 0.049963850355720062 0.034681457308653955 0.045558656974919447 -0.062534515194204873 -0.058351194813174259 0.015733315818932753 -0.0042514935093180299 -0.0022305898014697788 0.036758552250232439 0 -0.00025262487242456473 0.014003698500770788 0.016805235524106402 0.066433960576285395 -0.043423474533155704
leaf_weight=1.0747234970331252 1.1066680699586862 1.2119461745023747 1.4247793108224862 2.4629486873745918 1.7818796932697298 0.72791773080825795 1.2891557961702345 0.77823012322187402 0.89046129211783409 0.82487942278385151 1.0546808019280436 1.5196947157382963 0.44630386680364598 0.71685124933719624 1.9855795428156851 2.30250433832407 1.5530606284737585 0.95370424166321743
leaf_count=12 5 8 8 7 6 4 15 8 5 5 6 8 3 5 9 9 6 7
internal_value=0.00497365 -0.00237987 0.00118998 0.00917847 -0.0145906 -0.00789438 -0.015265 0.00833776 -0.0173363 -0.0507446 -0.00174503 0.0140855 -0.0473607 -0.0384318 0.0362345 0.0356451 0.04991 -0.0252948
internal_weight=24.106 19.4607 17.6691 11.9689 5.70023 7.2034 6.47549 3.45057 1.66869 2.24966 4.74003 2.73164 1.73546 1.79157 4.64531 4.76545 2.65973 2.00839
internal_count=136 116 99 67 32 51 47 19 13 13 29 16 18 17 20 16 11 13
is_linear=0
shrinkage=0.05


Tree=13
num_leaves=18
num_cat=0
split_feature=10 4 6 1 6 9 9 10 9 22 8 10 5 6 1 9 8
split_gain=2.20137 1.16109 1.19382 1.13224 1.33325 2.03557 1.12904 2.53185 1.50406 1.06861 1.03409 0.998841 0.841515 0.762699 0.399844 0.34646 0.0710502
threshold=0.17136681000000001 8.5000000000000018 0.29750000000000004 0.65690000000000015 0.33335000000000009 0.41190000000000004 0.43650000000000005 0.31002600000000008 0.40590000000000009 1.0000000180025095e-35 0.59410000000000007 0.3333350000000001 4.5000000000000009 0.13390000000000005 0.70595000000000008 0.38750000000000007 0.52920000000000011
decision_type=2 2 2 2 2 2 2 2 2 2 2 2 2 2 2 2 2
left_child=1 2 -1 6 13 -6 8 -8 12 11 -4 -9 -2 -5 -12 -14 -10
right_child=3 -3 10 4 5 -7 7 9 16 -11 14 -13 15 -15 -16 -17 -18
leaf_value=-0.061279734806190124 0.026677133714063706 0.033018638170280008 0.020614458488702678 0.016384388390865343 0.046071552243371949 -0.045390970792007108 -0.069678917061821818 0.019500217435133249 0.021294772669643438 0.042697526961657829 -0.060260809424925489 -0.045675008906113555 -0.055927824144067773 0.063674036800188002 0 -0.0043379013486482777 0.048087294607742422
leaf_weight=1.9669029079377676 0.78318342566490384 0.63515971601009358 1.3203020244836809 1.9072366282343853 1.0593836605548861 1.1755333840847013 1.3749897405505178 0.97609570622444186 1.6742144003510477 1.2895824164152148 0.76198622584342934 1.068423695862293 0.73901521414518334 2.5264255292713642 0.52479413896799088 0.95684674382209778 1.9336723685264585
leaf_count=26 4 3 6 10 5 6 10 4 6 5 8 8 7 12 4 6 6
internal_value=0.00482907 -0.0230665 -0.0324642 0.013518 0.0296428 0 0.00291847 -0.0147279 0.0173959 0.0078472 -0.00741679 -0.0127691 -0.0108366 0.0452443 -0.0391963 -0.0314661 0.0379125
internal_weight=22.6737 5.20915 4.57399 17.4646 6.66858 2.23492 10.796 4.70909 6.08693 3.3341 2.60708 2.04452 2.47905 4.43366 1.28678 1.69586 3.60789
internal_count=136 47 44 89 33 11 56 27 29 17 18 12 17 22 12 13 12
is_linear=0
shrinkage=0.05


Tree=14
num_leaves=17
num_cat=0
split_feature=10 4 1 6 0 1 6 4 6 1 0 6 7 10 6 1
split_gain=2.20455 0.960651 0.960532 1.07559 1.54895 0.970517 1.18492 1.8063 1.74699 1.14729 1.0217 0.889357 1.0643 0.686529 0.578488 0.350937
threshold=0.17136681000000001 8.5000000000000018 0.65690000000000015 0.33335000000000009 0.41190000000000004 0.43650000000000005 0.11765000000000002 3.5000000000000004 0.17645 0.40590000000000009 0.63605000000000012 0.29750000000000004 0.39642500000000008 0.22528635000000002 0.13390000000000005 0.70595000000000008
decision_type=2 2 2 2 2 2 2 2 2 2 2 2 2 2 2 2
left_child=1 11 5 14 -5 9 7 -7 10 13 -8 -1 -13 -2 -4 -14
right_child=2 -3 3 4 -6 6 8 -9 -10 -11 -12 12 15 -15 -16 -17
leaf_value=-0.059293138733776153 0.022558506310722731 0.028285983750278243 0.017684480428903863 0.043391292357895898 -0.039524595924494213 0.015568216984356687 0.052272753739534064 -0.070032817422248192 -0.039107920198368201 0.045634856588266694 -0.0051209932293884665 0.021995292543229916 -0.059052892189293549 -0.037664914185552623 0.061791540632106651 0
leaf_weight=1.7809936329722429 0.78362259641289911 0.58971311151981343 1.815907560288905 0.98038776218891177 1.0766812637448309 0.85924115777015719 1.7912124693393709 1.3975115604698656 1.1939338371157644 2.3282057344913483 1.0399247854948042 1.1294838637113573 0.81258450448513009 0.83675164729356766 2.2803173772990704 0.47643046081066132
leaf_count=26 6 3 10 5 6 6 6 10 8 7 6 6 8 7 12 4
internal_value=0.00529844 -0.0238407 0.0142125 0.0297982 0 0.0041565 -0.00744662 -0.0360417 0.00785884 0.023579 0.0300298 -0.0328112 -0.00974442 -0.00601582 0.0443173 -0.0407369
internal_weight=21.1729 4.78921 16.3837 6.15329 2.05707 10.2304 6.28182 2.25675 4.02507 3.94858 2.83114 4.19949 2.4185 1.62037 4.09622 1.28901
internal_count=136 47 89 33 11 56 36 16 20 20 12 44 18 13 22 12
is_linear=0
shrinkage=0.05


Tree=15
num_leaves=17
num_cat=0
split_feature=12 6 2 7 0 9 13 2 9 6 14 6 6 5 0 0
split_gain=1.78874 1.71767 1.71611 1.48605 3.25317 1.43488 1.00111 1.2274 1.73693 1.7262 0.654814 0.734246 0.306001 0.177867 0.147319 0.0943817
threshold=1.0000000180025095e-35 0.11765000000000002 10.500000000000002 0.44575000000000004 0.41190000000000004 0.15480000000000002 1.0000000180025095e-35 2.5000000000000004 0.48550000000000004 0.29405000000000009 1.0000000180025095e-35 0.41190000000000004 0.35150000000000009 3.5000000000000004 0.41190000000000004 0.48550000000000004
decision_type=2 2 2 2 2 2 2 2 2 2 2 2 2 2 2 2
left_child=1 3 5 4 -1 -3 7 13 9 14 11 -8 -11 -7 -9 -12
right_child=-2 2 -4 -5 -6 6 10 8 -10 12 15 -13 -14 -15 -16 -17
leaf_value=-0.061841281731417945 0.046366158196326612 -0.054704835845502134 -0.06173975925313218 -0.068300930772387636 0.045118423915411009 0.076326548068469252 0.028190252541023936 -0.018515746151355213 0.041545462389110999 -4.2056531255461292e-05 -0.055610684929939536 -0.023685927250490443 0.035712427581706584 0.030475599456794525 -0.064609413351902317 -0.0088874559292968763
leaf_weight=1.337781880050904 1.4740286953747261 0.80074263736605367 0.93393158912658769 1.8882442526519296 1.2791491672396658 0.78819356858730172 1.3588011264801028 0.80610945820808433 2.16663558781147 0.72349524125456799 0.61075624451041244 1.1373975723981855 1.0188706517219541 1.4325997456908224 0.95556899160146713 0.54334576427936554
leaf_count=16 11 10 10 18 5 4 7 5 11 6 6 7 5 8 7 4
internal_value=-0.00425873 -0.00897078 0 -0.0352838 -0.00798299 0.00529722 0.0103237 0.0204736 0.00677813 -0.0138883 -0.0102467 0.00262502 0.0189555 0.0514909 -0.0483311 -0.0400632
internal_weight=19.2557 17.7816 13.2764 4.50518 2.61693 12.3425 11.5418 7.89147 5.67068 3.50404 3.6503 2.4962 1.74237 2.22079 1.76168 1.1541
internal_count=140 129 90 39 21 80 70 46 34 23 24 14 11 12 12 10
is_linear=0
shrinkage=0.05


Tree=16
num_leaves=16
num_cat=0
split_feature=1 5 12 6 8 5 6 6 6 6 2 2 4 2 6
split_gain=1.80529 1.74441 1.64547 1.65015 0.943081 1.1707 0.879036 1.03101 0.647631 0.599865 0.563192 0.362219 0.306705 0.253047 0.237912
threshold=0.58810000000000007 15.500000000000002 1.0000000180025095e-35 0.11765000000000002 0.42030000000000006 3.5000000000000004 0.13390000000000005 0.29750000000000004 0.37650000000000006 0.058949999999999982 6.5000000000000009 8.5000000000000018 6.5000000000000009 4.5000000000000009 0.12135000000000003
decision_type=2 2 2 2 2 2 2 2 2 2 2 2 2 2 2
left_child=1 4 3 -2 14 -6 9 -8 10 -7 -5 -12 -10 -9 -1
right_child=2 -3 -4 8 5 6 7 13 12 -11 11 -13 -14 -15 -16
leaf_value=-0.055986945896509599 -0.062087675776101137 -0.065540526888265685 0.06250789808716864 0.044286972093428217 0.049627312868289475 -0.0079901060240350989 -0.059250734291753995 -0.020392471691417797 0.004264814070877203 0.042065028229025851 -0.0055037595807317808 0.026540825212794817 -0.032015160475852483 0.013591040104409424 -0.0054702833076955091
leaf_weight=1.0335692837834374 0.78178218752145578 1.6505320109426973 1.2391865178942678 1.5944174602627752 0.91301267594099034 1.0007520839571951 1.2464589737355711 0.90377625077962864 0.82128176093101479 0.97908030450344075 1.9541769772768023 1.2682638987898824 0.94849496334791183 1.0650033876299856 0.62745051085948933
leaf_count=15 6 18 8 9 7 7 16 7 6 6 9 6 7 7 6
internal_value=-0.00470823 -0.0199294 0.0114122 0.00142779 -0.00889421 0 -0.00903069 -0.0254626 0.0105301 0.0151918 0.0203483 0.00602243 -0.0131773 0 -0.0411378
internal_weight=18.0272 9.41964 8.6076 7.36842 7.7691 6.10808 5.19507 3.21524 6.58664 1.97983 4.81686 3.22244 1.76978 1.96878 1.66102
internal_count=140 89 51 43 71 50 43 30 37 13 24 15 13 14 21
is_linear=0
shrinkage=0.05


Tree=17
num_leaves=19
num_cat=0
split_feature=12 1 9 9 8 7 9 4 0 0 4 24 1 0 4 0 0 0
split_gain=1.70799 0.936505 1.4718 0.833612 0.92574 0.799774 0.670793 0.656848 1.01288 0.686493 0.652027 0.343522 0.666702 0.263125 0.337617 0.253991 0.186982 0.0672677
threshold=1.0000000180025095e-35 0.61250000000000016 0.43650000000000005 0.41190000000000004 0.48550000000000004 0.38217500000000004 0.17135000000000003 6.5000000000000009 0.41190000000000004 0.51450000000000007 8.5000000000000018 1.0000000180025095e-35 0.58810000000000007 0.26785000000000009 7.5000000000000009 0.73215000000000019 0.58810000000000007 0.58810000000000007
decision_type=2 2 2 2 2 2 2 2 2 2 2 2 2 2 2 2 2 2
left_child=1 2 3 4 13 6 -6 8 -3 -10 -4 12 -7 14 -1 -9 -11 -2
right_child=17 7 10 -5 5 11 -8 15 9 16 -12 -13 -14 -15 -16 -17 -18 -19
leaf_value=-0.039146675888554361 0.061923975327001751 0.05236156195704731 -0.072071885819449552 0.024682547351579973 -0.01366143510625918 -0.057154181745823054 0.039215173701091843 -0.034067616829582717 -0.031901511911448348 0.029974725268390054 0 0.0015538668903773065 0 -0.060666761050580179 0.018538256631233135 0 0 0.019339154405666432
leaf_weight=0.41179482080042173 0.67222820222377844 1.2737396322190768 1.5143787488341325 1.3734784349799154 0.76935292035341296 1.075557682663203 1.361818980425596 0.96700587123632409 0.9816219508647922 1.1052688285708425 0.52068229019641865 0.75035289674997319 0.92881927266716946 1.1488796137273309 0.2921137735247612 0.70974613726139069 0.67628413066267956 0.81103925779461861
leaf_count=9 3 7 16 8 7 16 8 7 6 5 4 6 5 13 2 4 6 8
internal_value=-0.00452684 -0.00967396 -0.0188459 -0.00828278 -0.0159956 -0.00318044 0.018129 0.0057989 0.0172726 0 -0.0562505 -0.0214753 -0.0321366 -0.0453359 -0.00966025 -0.0184284 0.018086 0.0444891
internal_weight=17.3442 15.8609 10.1472 8.11217 6.73869 4.8859 2.13117 5.71367 4.03691 2.76317 2.03506 2.75473 2.00438 1.85279 0.703909 1.67675 1.78155 1.48327
internal_count=140 129 94 74 66 42 15 35 24 17 20 27 21 24 11 11 11 11
is_linear=0
shrinkage=0.05


end of trees

feature_importances:
Column_6=66
Column_1=34
Column_0=30
Column_9=25
Column_10=25
Column_2=22
Column_8=20
Column_7=19
Column_4=18
Column_5=12
Column_3=7
Column_13=6
Column_18=6
Column_21=4
Column_23=4
Column_12=3
Column_14=2
Column_22=2
Column_17=1
Column_24=1

parameters:
[boosting: gbdt]
[objective: lambdarank]
[metric: ndcg]
[tree_learner: serial]
[device_type: cpu]
[data_sample_strategy: bagging]
[data: ]
[valid: ]
[num_iterations: 800]
[learning_rate: 0.05]
[num_leaves: 63]
[num_threads: 0]
[seed: 42]
[deterministic: 0]
[force_col_wise: 0]
[force_row_wise: 1]
[histogram_pool_size: -1]
[max_depth: -1]
[min_data_in_leaf: 5]
[min_sum_hessian_in_leaf: 0.001]
[bagging_fraction: 0.8]
[pos_bagging_fraction: 1]
[neg_bagging_fraction: 1]
[bagging_freq: 5]
[bagging_seed: 400]
[bagging_by_query: 0]
[feature_fraction: 0.8]
[feature_fraction_bynode: 1]
[feature_fraction_seed: 30056]
[extra_trees: 0]
[extra_seed: 12879]
[early_stopping_round: 0]
[early_stopping_min_delta: 0]
[first_metric_only: 0]
[max_delta_step: 0]
[lambda_l1: 0.1]
[lambda_l2: 0.1]
[linear_lambda: 0]
[min_gain_to_split: 0]
[drop_rate: 0.1]
[max_drop: 50]
[skip_drop: 0.5]
[xgboost_dart_mode: 0]
[uniform_drop: 0]
[drop_seed: 17869]
[top_rate: 0.2]
[other_rate: 0.1]
[min_data_per_group: 100]
[max_cat_threshold: 32]
[cat_l2: 10]
[cat_smooth: 10]
[max_cat_to_onehot: 4]
[top_k: 20]
[monotone_constraints: ]
[monotone_constraints_method: basic]
[monotone_penalty: 0]
[feature_contri: ]
[forcedsplits_filename: ]
[refit_decay_rate: 0.9]
[cegb_tradeoff: 1]
[cegb_penalty_split: 0]
[cegb_penalty_feature_lazy: ]
[cegb_penalty_feature_coupled: ]
[path_smooth: 0]
[interaction_constraints: ]
[verbosity: -1]
[saved_feature_importance_type: 0]
[use_quantized_grad: 0]
[num_grad_quant_bins: 4]
[quant_train_renew_leaf: 0]
[stochastic_rounding: 1]
[linear_tree: 0]
[max_bin: 255]
[max_bin_by_feature: ]
[min_data_in_bin: 3]
[bin_construct_sample_cnt: 200000]
[data_random_seed: 175]
[is_enable_sparse: 1]
[enable_bundle: 1]
[use_missing: 1]
[zero_as_missing: 0]
[feature_pre_filter: 1]
[pre_partition: 0]
[two_round: 0]
[header: 0]
[label_column: ]
[weight_column: ]
[group_column: ]
[ignore_column: ]
[categorical_feature: ]
[forcedbins_filename: ]
[precise_float_parser: 0]
[parser_config_file: ]
[objective_seed: 16083]
[num_class: 1]
[is_unbalance: 0]
[scale_pos_weight: 1]
[sigmoid: 1]
[boost_from_average: 1]
[reg_sqrt: 0]
[alpha: 0.9]
[fair_c: 1]
[poisson_max_delta_step: 0.7]
[tweedie_variance_power: 1.5]
[lambdarank_truncation_level: 30]
[lambdarank_norm: 1]
[label_gain: ]
[lambdarank_position_bias_regularization: 0]
[eval_at: 1]
[multi_error_top_k: 1]
[auc_mu_weights: ]
[num_machines: 1]
[local_listen_port: 12400]
[time_out: 120]
[machine_list_filename: ]
[machines: ]
[gpu_platform_id: -1]
[gpu_device_id: -1]
[gpu_use_dp: 0]
[num_gpu: 1]

end of parameters

pandas_categorical:null
